digraph Tree {
node [shape=box, style="filled, rounded", color="black", fontname="helvetica"] ;
edge [fontname="helvetica"] ;
0 [label="국내비율 <= -0.0\ngini = 0.786\nsamples = 7220\nvalue = [2069, 3415, 1890, 1693, 2396]", fillcolor="#f0fce9"] ;
1 [label="국외비율 <= -11.523\ngini = 0.716\nsamples = 5543\nvalue = [0, 3415, 1275, 1693, 2396]", fillcolor="#eafbdf"] ;
0 -> 1 [labeldistance=2.5, labelangle=45, headlabel="True"] ;
2 [label="공익사업유형 <= 1.5\ngini = 0.455\nsamples = 2719\nvalue = [0, 2824, 0, 1518, 0]", fillcolor="#c2f3a3"] ;
1 -> 2 ;
3 [label="설립유형 <= 0.15\ngini = 0.281\nsamples = 435\nvalue = [0, 594, 0, 121, 0]", fillcolor="#96ea61"] ;
2 -> 3 ;
4 [label="개인기부비율 <= 0.926\ngini = 0.5\nsamples = 9\nvalue = [0, 6, 0, 6, 0]", fillcolor="#ffffff"] ;
3 -> 4 ;
5 [label="개인기부비율 <= 0.426\ngini = 0.375\nsamples = 6\nvalue = [0, 2, 0, 6, 0]", fillcolor="#7d7bee"] ;
4 -> 5 ;
6 [label="복식부기 <= 0.5\ngini = 0.444\nsamples = 5\nvalue = [0, 2, 0, 4, 0]", fillcolor="#9e9cf2"] ;
5 -> 6 ;
7 [label="gini = 0.0\nsamples = 1\nvalue = [0, 1, 0, 0, 0]", fillcolor="#7be539"] ;
6 -> 7 ;
8 [label="기타자산비율 <= 0.618\ngini = 0.32\nsamples = 4\nvalue = [0, 1, 0, 4, 0]", fillcolor="#6d6aec"] ;
6 -> 8 ;
9 [label="gini = 0.0\nsamples = 2\nvalue = [0, 0, 0, 2, 0]", fillcolor="#3c39e5"] ;
8 -> 9 ;
10 [label="영리기부비율 <= 0.06\ngini = 0.444\nsamples = 2\nvalue = [0, 1, 0, 2, 0]", fillcolor="#9e9cf2"] ;
8 -> 10 ;
11 [label="gini = 0.0\nsamples = 1\nvalue = [0, 1, 0, 0, 0]", fillcolor="#7be539"] ;
10 -> 11 ;
12 [label="gini = 0.0\nsamples = 1\nvalue = [0, 0, 0, 2, 0]", fillcolor="#3c39e5"] ;
10 -> 12 ;
13 [label="gini = 0.0\nsamples = 1\nvalue = [0, 0, 0, 2, 0]", fillcolor="#3c39e5"] ;
5 -> 13 ;
14 [label="gini = 0.0\nsamples = 3\nvalue = [0, 4, 0, 0, 0]", fillcolor="#7be539"] ;
4 -> 14 ;
15 [label="자원봉사자 연인원 수 <= -6.908\ngini = 0.274\nsamples = 426\nvalue = [0, 588, 0, 115, 0]", fillcolor="#95ea60"] ;
3 -> 15 ;
16 [label="gini = 0.0\nsamples = 354\nvalue = [0, 588, 0, 0, 0]", fillcolor="#7be539"] ;
15 -> 16 ;
17 [label="gini = 0.0\nsamples = 72\nvalue = [0, 0, 0, 115, 0]", fillcolor="#3c39e5"] ;
15 -> 17 ;
18 [label="외부회계감사 여부 <= 0.5\ngini = 0.474\nsamples = 2284\nvalue = [0, 2230, 0, 1397, 0]", fillcolor="#cef5b5"] ;
2 -> 18 ;
19 [label="설립유형 <= 0.35\ngini = 0.483\nsamples = 1871\nvalue = [0, 1761, 0, 1211, 0]", fillcolor="#d6f7c1"] ;
18 -> 19 ;
20 [label="영리기부비율 <= 0.125\ngini = 0.457\nsamples = 1156\nvalue = [0, 1193, 0, 650, 0]", fillcolor="#c3f3a5"] ;
19 -> 20 ;
21 [label="자원봉사자 연인원 수 <= -6.908\ngini = 0.329\nsamples = 698\nvalue = [0, 868, 0, 227, 0]", fillcolor="#9eec6d"] ;
20 -> 21 ;
22 [label="gini = 0.0\nsamples = 559\nvalue = [0, 868, 0, 0, 0]", fillcolor="#7be539"] ;
21 -> 22 ;
23 [label="gini = 0.0\nsamples = 139\nvalue = [0, 0, 0, 227, 0]", fillcolor="#3c39e5"] ;
21 -> 23 ;
24 [label="자원봉사자 연인원 수 <= -6.908\ngini = 0.491\nsamples = 458\nvalue = [0, 325, 0, 423, 0]", fillcolor="#d2d1f9"] ;
20 -> 24 ;
25 [label="gini = 0.0\nsamples = 207\nvalue = [0, 325, 0, 0, 0]", fillcolor="#7be539"] ;
24 -> 25 ;
26 [label="gini = 0.0\nsamples = 251\nvalue = [0, 0, 0, 423, 0]", fillcolor="#3c39e5"] ;
24 -> 26 ;
27 [label="물질지분비율 <= 0.964\ngini = 0.5\nsamples = 715\nvalue = [0, 568, 0, 561, 0]", fillcolor="#fdfffd"] ;
19 -> 27 ;
28 [label="개인기부비율 <= 0.075\ngini = 0.499\nsamples = 593\nvalue = [0, 451, 0, 501, 0]", fillcolor="#ecebfc"] ;
27 -> 28 ;
29 [label="물질지분비율 <= 0.959\ngini = 0.496\nsamples = 558\nvalue = [0, 405, 0, 481, 0]", fillcolor="#e0e0fb"] ;
28 -> 29 ;
30 [label="자원봉사자 연인원 수 <= -6.908\ngini = 0.497\nsamples = 554\nvalue = [0, 405, 0, 473, 0]", fillcolor="#e3e3fb"] ;
29 -> 30 ;
31 [label="gini = 0.0\nsamples = 257\nvalue = [0, 405, 0, 0, 0]", fillcolor="#7be539"] ;
30 -> 31 ;
32 [label="gini = 0.0\nsamples = 297\nvalue = [0, 0, 0, 473, 0]", fillcolor="#3c39e5"] ;
30 -> 32 ;
33 [label="gini = 0.0\nsamples = 4\nvalue = [0, 0, 0, 8, 0]", fillcolor="#3c39e5"] ;
29 -> 33 ;
34 [label="복식부기 <= 0.5\ngini = 0.422\nsamples = 35\nvalue = [0, 46, 0, 20, 0]", fillcolor="#b4f08f"] ;
28 -> 34 ;
35 [label="기타자산비율 <= 0.064\ngini = 0.488\nsamples = 12\nvalue = [0, 15, 0, 11, 0]", fillcolor="#dcf8ca"] ;
34 -> 35 ;
36 [label="gini = 0.0\nsamples = 4\nvalue = [0, 0, 0, 9, 0]", fillcolor="#3c39e5"] ;
35 -> 36 ;
37 [label="개인기부비율 <= 0.918\ngini = 0.208\nsamples = 8\nvalue = [0, 15, 0, 2, 0]", fillcolor="#8de853"] ;
35 -> 37 ;
38 [label="gini = 0.0\nsamples = 2\nvalue = [0, 3, 0, 0, 0]", fillcolor="#7be539"] ;
37 -> 38 ;
39 [label="물질지분비율 <= 0.103\ngini = 0.245\nsamples = 6\nvalue = [0, 12, 0, 2, 0]", fillcolor="#91e95a"] ;
37 -> 39 ;
40 [label="gini = 0.0\nsamples = 3\nvalue = [0, 6, 0, 0, 0]", fillcolor="#7be539"] ;
39 -> 40 ;
41 [label="기타자산비율 <= 0.379\ngini = 0.375\nsamples = 3\nvalue = [0, 6, 0, 2, 0]", fillcolor="#a7ee7b"] ;
39 -> 41 ;
42 [label="gini = 0.0\nsamples = 2\nvalue = [0, 6, 0, 0, 0]", fillcolor="#7be539"] ;
41 -> 42 ;
43 [label="gini = 0.0\nsamples = 1\nvalue = [0, 0, 0, 2, 0]", fillcolor="#3c39e5"] ;
41 -> 43 ;
44 [label="자원봉사자 연인원 수 <= -6.908\ngini = 0.349\nsamples = 23\nvalue = [0, 31, 0, 9, 0]", fillcolor="#a1ed72"] ;
34 -> 44 ;
45 [label="gini = 0.0\nsamples = 16\nvalue = [0, 31, 0, 0, 0]", fillcolor="#7be539"] ;
44 -> 45 ;
46 [label="gini = 0.0\nsamples = 7\nvalue = [0, 0, 0, 9, 0]", fillcolor="#3c39e5"] ;
44 -> 46 ;
47 [label="자원봉사자 연인원 수 <= -6.908\ngini = 0.448\nsamples = 122\nvalue = [0, 117, 0, 60, 0]", fillcolor="#bff29f"] ;
27 -> 47 ;
48 [label="gini = 0.0\nsamples = 80\nvalue = [0, 117, 0, 0, 0]", fillcolor="#7be539"] ;
47 -> 48 ;
49 [label="gini = 0.0\nsamples = 42\nvalue = [0, 0, 0, 60, 0]", fillcolor="#3c39e5"] ;
47 -> 49 ;
50 [label="자원봉사자 연인원 수 <= -6.908\ngini = 0.407\nsamples = 413\nvalue = [0, 469, 0, 186, 0]", fillcolor="#afef88"] ;
18 -> 50 ;
51 [label="gini = 0.0\nsamples = 300\nvalue = [0, 469, 0, 0, 0]", fillcolor="#7be539"] ;
50 -> 51 ;
52 [label="gini = 0.0\nsamples = 113\nvalue = [0, 0, 0, 186, 0]", fillcolor="#3c39e5"] ;
50 -> 52 ;
53 [label="자원봉사자 연인원 수 <= -6.908\ngini = 0.607\nsamples = 2824\nvalue = [0, 591, 1275, 175, 2396]", fillcolor="#f6b9e9"] ;
1 -> 53 ;
54 [label="기타자산비율 <= 0.993\ngini = 0.318\nsamples = 1908\nvalue = [0, 591, 1, 0, 2396]", fillcolor="#eb6ad0"] ;
53 -> 54 ;
55 [label="개인기부비율 <= 0.0\ngini = 0.234\nsamples = 1338\nvalue = [0, 282, 1, 0, 1805]", fillcolor="#e958ca"] ;
54 -> 55 ;
56 [label="물질지분비율 <= 0.999\ngini = 0.476\nsamples = 478\nvalue = [0, 282, 0, 0, 439]", fillcolor="#f6b8e8"] ;
55 -> 56 ;
57 [label="기부금사용비율 <= -11.85\ngini = 0.472\nsamples = 462\nvalue = [0, 264, 0, 0, 429]", fillcolor="#f5b3e7"] ;
56 -> 57 ;
58 [label="기타자산비율 <= 0.223\ngini = 0.029\nsamples = 181\nvalue = [0, 264, 0, 0, 4]", fillcolor="#7de53c"] ;
57 -> 58 ;
59 [label="gini = 0.0\nsamples = 57\nvalue = [0, 78, 0, 0, 0]", fillcolor="#7be539"] ;
58 -> 59 ;
60 [label="국외비율 <= -0.034\ngini = 0.041\nsamples = 124\nvalue = [0, 186, 0, 0, 4]", fillcolor="#7ee63d"] ;
58 -> 60 ;
61 [label="gini = 0.0\nsamples = 3\nvalue = [0, 0, 0, 0, 4]", fillcolor="#e539c0"] ;
60 -> 61 ;
62 [label="gini = 0.0\nsamples = 121\nvalue = [0, 186, 0, 0, 0]", fillcolor="#7be539"] ;
60 -> 62 ;
63 [label="gini = 0.0\nsamples = 281\nvalue = [0, 0, 0, 0, 425]", fillcolor="#e539c0"] ;
57 -> 63 ;
64 [label="기부금사용비율 <= -7.564\ngini = 0.459\nsamples = 16\nvalue = [0, 18, 0, 0, 10]", fillcolor="#c4f3a7"] ;
56 -> 64 ;
65 [label="gini = 0.0\nsamples = 10\nvalue = [0, 18, 0, 0, 0]", fillcolor="#7be539"] ;
64 -> 65 ;
66 [label="gini = 0.0\nsamples = 6\nvalue = [0, 0, 0, 0, 10]", fillcolor="#e539c0"] ;
64 -> 66 ;
67 [label="국외비율 <= -8.336\ngini = 0.001\nsamples = 860\nvalue = [0, 0, 1, 0, 1366]", fillcolor="#e539c0"] ;
55 -> 67 ;
68 [label="gini = 0.0\nsamples = 1\nvalue = [0, 0, 1, 0, 0]", fillcolor="#39e5c5"] ;
67 -> 68 ;
69 [label="gini = 0.0\nsamples = 859\nvalue = [0, 0, 0, 0, 1366]", fillcolor="#e539c0"] ;
67 -> 69 ;
70 [label="국외비율 <= 0.0\ngini = 0.451\nsamples = 570\nvalue = [0, 309, 0, 0, 591]", fillcolor="#f3a1e1"] ;
54 -> 70 ;
71 [label="gini = 0.0\nsamples = 90\nvalue = [0, 0, 0, 0, 140]", fillcolor="#e539c0"] ;
70 -> 71 ;
72 [label="영리기부비율 <= 0.0\ngini = 0.483\nsamples = 480\nvalue = [0, 309, 0, 0, 451]", fillcolor="#f7c1eb"] ;
70 -> 72 ;
73 [label="개인기부비율 <= 0.0\ngini = 0.398\nsamples = 269\nvalue = [0, 309, 0, 0, 117]", fillcolor="#adef84"] ;
72 -> 73 ;
74 [label="기부금사용비율 <= -9.184\ngini = 0.319\nsamples = 244\nvalue = [0, 309, 0, 0, 77]", fillcolor="#9ceb6a"] ;
73 -> 74 ;
75 [label="gini = 0.0\nsamples = 197\nvalue = [0, 309, 0, 0, 0]", fillcolor="#7be539"] ;
74 -> 75 ;
76 [label="gini = 0.0\nsamples = 47\nvalue = [0, 0, 0, 0, 77]", fillcolor="#e539c0"] ;
74 -> 76 ;
77 [label="gini = 0.0\nsamples = 25\nvalue = [0, 0, 0, 0, 40]", fillcolor="#e539c0"] ;
73 -> 77 ;
78 [label="gini = 0.0\nsamples = 211\nvalue = [0, 0, 0, 0, 334]", fillcolor="#e539c0"] ;
72 -> 78 ;
79 [label="기부금사용비율 <= -9.763\ngini = 0.212\nsamples = 916\nvalue = [0, 0, 1274, 175, 0]", fillcolor="#54e9cd"] ;
53 -> 79 ;
80 [label="복식부기 <= 0.5\ngini = 0.011\nsamples = 108\nvalue = [0, 0, 1, 175, 0]", fillcolor="#3d3ae5"] ;
79 -> 80 ;
81 [label="물질지분비율 <= 0.097\ngini = 0.03\nsamples = 40\nvalue = [0, 0, 1, 65, 0]", fillcolor="#3f3ce5"] ;
80 -> 81 ;
82 [label="국외비율 <= -0.002\ngini = 0.049\nsamples = 23\nvalue = [0, 0, 1, 39, 0]", fillcolor="#413ee6"] ;
81 -> 82 ;
83 [label="gini = 0.0\nsamples = 1\nvalue = [0, 0, 1, 0, 0]", fillcolor="#39e5c5"] ;
82 -> 83 ;
84 [label="gini = 0.0\nsamples = 22\nvalue = [0, 0, 0, 39, 0]", fillcolor="#3c39e5"] ;
82 -> 84 ;
85 [label="gini = 0.0\nsamples = 17\nvalue = [0, 0, 0, 26, 0]", fillcolor="#3c39e5"] ;
81 -> 85 ;
86 [label="gini = 0.0\nsamples = 68\nvalue = [0, 0, 0, 110, 0]", fillcolor="#3c39e5"] ;
80 -> 86 ;
87 [label="gini = 0.0\nsamples = 808\nvalue = [0, 0, 1273, 0, 0]", fillcolor="#39e5c5"] ;
79 -> 87 ;
88 [label="설립유형 <= 0.35\ngini = 0.353\nsamples = 1677\nvalue = [2069, 0, 615, 0, 0]", fillcolor="#eda674"] ;
0 -> 88 [labeldistance=2.5, labelangle=-45, headlabel="False"] ;
89 [label="기부금사용비율 <= -0.343\ngini = 0.275\nsamples = 1167\nvalue = [1551, 0, 306, 0, 0]", fillcolor="#ea9a60"] ;
88 -> 89 ;
90 [label="기타자산비율 <= 0.436\ngini = 0.369\nsamples = 388\nvalue = [482, 0, 156, 0, 0]", fillcolor="#edaa79"] ;
89 -> 90 ;
91 [label="기부금사용비율 <= -0.359\ngini = 0.389\nsamples = 284\nvalue = [343, 0, 123, 0, 0]", fillcolor="#eeae80"] ;
90 -> 91 ;
92 [label="공익사업유형 <= 2.5\ngini = 0.375\nsamples = 274\nvalue = [339, 0, 113, 0, 0]", fillcolor="#eeab7b"] ;
91 -> 92 ;
93 [label="공익사업유형 <= 1.5\ngini = 0.489\nsamples = 108\nvalue = [107, 0, 79, 0, 0]", fillcolor="#f8decb"] ;
92 -> 93 ;
94 [label="물질지분비율 <= 0.597\ngini = 0.206\nsamples = 49\nvalue = [76, 0, 10, 0, 0]", fillcolor="#e89253"] ;
93 -> 94 ;
95 [label="기부금사용비율 <= -1.427\ngini = 0.111\nsamples = 29\nvalue = [48, 0, 3, 0, 0]", fillcolor="#e78945"] ;
94 -> 95 ;
96 [label="gini = 0.0\nsamples = 10\nvalue = [22, 0, 0, 0, 0]", fillcolor="#e58139"] ;
95 -> 96 ;
97 [label="설립유형 <= 0.15\ngini = 0.185\nsamples = 19\nvalue = [26, 0, 3, 0, 0]", fillcolor="#e89050"] ;
95 -> 97 ;
98 [label="gini = 0.0\nsamples = 1\nvalue = [2, 0, 0, 0, 0]", fillcolor="#e58139"] ;
97 -> 98 ;
99 [label="기부금사용비율 <= -1.106\ngini = 0.198\nsamples = 18\nvalue = [24, 0, 3, 0, 0]", fillcolor="#e89152"] ;
97 -> 99 ;
100 [label="gini = 0.0\nsamples = 1\nvalue = [0, 0, 1, 0, 0]", fillcolor="#39e5c5"] ;
99 -> 100 ;
101 [label="물질지분비율 <= 0.359\ngini = 0.142\nsamples = 17\nvalue = [24, 0, 2, 0, 0]", fillcolor="#e78c49"] ;
99 -> 101 ;
102 [label="자원봉사자 연인원 수 <= -5.279\ngini = 0.5\nsamples = 2\nvalue = [1, 0, 1, 0, 0]", fillcolor="#ffffff"] ;
101 -> 102 ;
103 [label="gini = 0.0\nsamples = 1\nvalue = [1, 0, 0, 0, 0]", fillcolor="#e58139"] ;
102 -> 103 ;
104 [label="gini = 0.0\nsamples = 1\nvalue = [0, 0, 1, 0, 0]", fillcolor="#39e5c5"] ;
102 -> 104 ;
105 [label="자원봉사자 연인원 수 <= -5.004\ngini = 0.08\nsamples = 15\nvalue = [23, 0, 1, 0, 0]", fillcolor="#e68642"] ;
101 -> 105 ;
106 [label="gini = 0.0\nsamples = 14\nvalue = [23, 0, 0, 0, 0]", fillcolor="#e58139"] ;
105 -> 106 ;
107 [label="gini = 0.0\nsamples = 1\nvalue = [0, 0, 1, 0, 0]", fillcolor="#39e5c5"] ;
105 -> 107 ;
108 [label="자원봉사자 연인원 수 <= -6.908\ngini = 0.32\nsamples = 20\nvalue = [28, 0, 7, 0, 0]", fillcolor="#eca06a"] ;
94 -> 108 ;
109 [label="gini = 0.0\nsamples = 16\nvalue = [28, 0, 0, 0, 0]", fillcolor="#e58139"] ;
108 -> 109 ;
110 [label="gini = 0.0\nsamples = 4\nvalue = [0, 0, 7, 0, 0]", fillcolor="#39e5c5"] ;
108 -> 110 ;
111 [label="자원봉사자 연인원 수 <= -6.908\ngini = 0.428\nsamples = 59\nvalue = [31, 0, 69, 0, 0]", fillcolor="#92f1df"] ;
93 -> 111 ;
112 [label="gini = 0.0\nsamples = 17\nvalue = [31, 0, 0, 0, 0]", fillcolor="#e58139"] ;
111 -> 112 ;
113 [label="gini = 0.0\nsamples = 42\nvalue = [0, 0, 69, 0, 0]", fillcolor="#39e5c5"] ;
111 -> 113 ;
114 [label="물질지분비율 <= 0.952\ngini = 0.223\nsamples = 166\nvalue = [232, 0, 34, 0, 0]", fillcolor="#e99356"] ;
92 -> 114 ;
115 [label="개인기부비율 <= 0.999\ngini = 0.184\nsamples = 141\nvalue = [202, 0, 23, 0, 0]", fillcolor="#e88f50"] ;
114 -> 115 ;
116 [label="자원봉사자 연인원 수 <= -6.908\ngini = 0.254\nsamples = 87\nvalue = [120, 0, 21, 0, 0]", fillcolor="#ea975c"] ;
115 -> 116 ;
117 [label="gini = 0.0\nsamples = 74\nvalue = [120, 0, 0, 0, 0]", fillcolor="#e58139"] ;
116 -> 117 ;
118 [label="gini = 0.0\nsamples = 13\nvalue = [0, 0, 21, 0, 0]", fillcolor="#39e5c5"] ;
116 -> 118 ;
119 [label="기부금사용비율 <= -0.925\ngini = 0.046\nsamples = 54\nvalue = [82, 0, 2, 0, 0]", fillcolor="#e6843e"] ;
115 -> 119 ;
120 [label="기타자산비율 <= 0.092\ngini = 0.108\nsamples = 23\nvalue = [33, 0, 2, 0, 0]", fillcolor="#e78945"] ;
119 -> 120 ;
121 [label="기타자산비율 <= 0.071\ngini = 0.231\nsamples = 10\nvalue = [13, 0, 2, 0, 0]", fillcolor="#e99457"] ;
120 -> 121 ;
122 [label="gini = 0.0\nsamples = 8\nvalue = [13, 0, 0, 0, 0]", fillcolor="#e58139"] ;
121 -> 122 ;
123 [label="gini = 0.0\nsamples = 2\nvalue = [0, 0, 2, 0, 0]", fillcolor="#39e5c5"] ;
121 -> 123 ;
124 [label="gini = 0.0\nsamples = 13\nvalue = [20, 0, 0, 0, 0]", fillcolor="#e58139"] ;
120 -> 124 ;
125 [label="gini = 0.0\nsamples = 31\nvalue = [49, 0, 0, 0, 0]", fillcolor="#e58139"] ;
119 -> 125 ;
126 [label="자원봉사자 연인원 수 <= -6.215\ngini = 0.393\nsamples = 25\nvalue = [30, 0, 11, 0, 0]", fillcolor="#efaf82"] ;
114 -> 126 ;
127 [label="gini = 0.0\nsamples = 21\nvalue = [30, 0, 0, 0, 0]", fillcolor="#e58139"] ;
126 -> 127 ;
128 [label="gini = 0.0\nsamples = 4\nvalue = [0, 0, 11, 0, 0]", fillcolor="#39e5c5"] ;
126 -> 128 ;
129 [label="기타자산비율 <= 0.014\ngini = 0.408\nsamples = 10\nvalue = [4, 0, 10, 0, 0]", fillcolor="#88efdc"] ;
91 -> 129 ;
130 [label="gini = 0.0\nsamples = 4\nvalue = [0, 0, 7, 0, 0]", fillcolor="#39e5c5"] ;
129 -> 130 ;
131 [label="개인기부비율 <= 0.895\ngini = 0.49\nsamples = 6\nvalue = [4, 0, 3, 0, 0]", fillcolor="#f8e0ce"] ;
129 -> 131 ;
132 [label="자원봉사자 연인원 수 <= -5.554\ngini = 0.48\nsamples = 4\nvalue = [2, 0, 3, 0, 0]", fillcolor="#bdf6ec"] ;
131 -> 132 ;
133 [label="gini = 0.0\nsamples = 2\nvalue = [2, 0, 0, 0, 0]", fillcolor="#e58139"] ;
132 -> 133 ;
134 [label="gini = 0.0\nsamples = 2\nvalue = [0, 0, 3, 0, 0]", fillcolor="#39e5c5"] ;
132 -> 134 ;
135 [label="gini = 0.0\nsamples = 2\nvalue = [2, 0, 0, 0, 0]", fillcolor="#e58139"] ;
131 -> 135 ;
136 [label="기부금사용비율 <= -0.351\ngini = 0.31\nsamples = 104\nvalue = [139, 0, 33, 0, 0]", fillcolor="#eb9f68"] ;
90 -> 136 ;
137 [label="영리기부비율 <= 0.035\ngini = 0.304\nsamples = 103\nvalue = [139, 0, 32, 0, 0]", fillcolor="#eb9e67"] ;
136 -> 137 ;
138 [label="설립유형 <= 0.25\ngini = 0.241\nsamples = 63\nvalue = [92, 0, 15, 0, 0]", fillcolor="#e99659"] ;
137 -> 138 ;
139 [label="복식부기 <= 0.5\ngini = 0.192\nsamples = 52\nvalue = [83, 0, 10, 0, 0]", fillcolor="#e89051"] ;
138 -> 139 ;
140 [label="물질지분비율 <= 0.068\ngini = 0.5\nsamples = 2\nvalue = [1, 0, 1, 0, 0]", fillcolor="#ffffff"] ;
139 -> 140 ;
141 [label="gini = 0.0\nsamples = 1\nvalue = [1, 0, 0, 0, 0]", fillcolor="#e58139"] ;
140 -> 141 ;
142 [label="gini = 0.0\nsamples = 1\nvalue = [0, 0, 1, 0, 0]", fillcolor="#39e5c5"] ;
140 -> 142 ;
143 [label="기타자산비율 <= 0.999\ngini = 0.178\nsamples = 50\nvalue = [82, 0, 9, 0, 0]", fillcolor="#e88f4f"] ;
139 -> 143 ;
144 [label="기부금사용비율 <= -0.808\ngini = 0.117\nsamples = 43\nvalue = [75, 0, 5, 0, 0]", fillcolor="#e78946"] ;
143 -> 144 ;
145 [label="기타자산비율 <= 0.641\ngini = 0.16\nsamples = 30\nvalue = [52, 0, 5, 0, 0]", fillcolor="#e88d4c"] ;
144 -> 145 ;
146 [label="gini = 0.0\nsamples = 12\nvalue = [22, 0, 0, 0, 0]", fillcolor="#e58139"] ;
145 -> 146 ;
147 [label="기부금사용비율 <= -1.002\ngini = 0.245\nsamples = 18\nvalue = [30, 0, 5, 0, 0]", fillcolor="#e9965a"] ;
145 -> 147 ;
148 [label="기부금사용비율 <= -2.583\ngini = 0.117\nsamples = 17\nvalue = [30, 0, 2, 0, 0]", fillcolor="#e78946"] ;
147 -> 148 ;
149 [label="자원봉사자 연인원 수 <= -6.908\ngini = 0.298\nsamples = 6\nvalue = [9, 0, 2, 0, 0]", fillcolor="#eb9d65"] ;
148 -> 149 ;
150 [label="gini = 0.0\nsamples = 5\nvalue = [9, 0, 0, 0, 0]", fillcolor="#e58139"] ;
149 -> 150 ;
151 [label="gini = 0.0\nsamples = 1\nvalue = [0, 0, 2, 0, 0]", fillcolor="#39e5c5"] ;
149 -> 151 ;
152 [label="gini = 0.0\nsamples = 11\nvalue = [21, 0, 0, 0, 0]", fillcolor="#e58139"] ;
148 -> 152 ;
153 [label="gini = 0.0\nsamples = 1\nvalue = [0, 0, 3, 0, 0]", fillcolor="#39e5c5"] ;
147 -> 153 ;
154 [label="gini = 0.0\nsamples = 13\nvalue = [23, 0, 0, 0, 0]", fillcolor="#e58139"] ;
144 -> 154 ;
155 [label="자원봉사자 연인원 수 <= -6.358\ngini = 0.463\nsamples = 7\nvalue = [7, 0, 4, 0, 0]", fillcolor="#f4c9aa"] ;
143 -> 155 ;
156 [label="gini = 0.0\nsamples = 5\nvalue = [7, 0, 0, 0, 0]", fillcolor="#e58139"] ;
155 -> 156 ;
157 [label="gini = 0.0\nsamples = 2\nvalue = [0, 0, 4, 0, 0]", fillcolor="#39e5c5"] ;
155 -> 157 ;
158 [label="기부금사용비율 <= -0.572\ngini = 0.459\nsamples = 11\nvalue = [9, 0, 5, 0, 0]", fillcolor="#f3c7a7"] ;
138 -> 158 ;
159 [label="공익사업유형 <= 5.5\ngini = 0.346\nsamples = 8\nvalue = [7, 0, 2, 0, 0]", fillcolor="#eca572"] ;
158 -> 159 ;
160 [label="자원봉사자 연인원 수 <= -6.908\ngini = 0.219\nsamples = 7\nvalue = [7, 0, 1, 0, 0]", fillcolor="#e99355"] ;
159 -> 160 ;
161 [label="gini = 0.0\nsamples = 6\nvalue = [7, 0, 0, 0, 0]", fillcolor="#e58139"] ;
160 -> 161 ;
162 [label="gini = 0.0\nsamples = 1\nvalue = [0, 0, 1, 0, 0]", fillcolor="#39e5c5"] ;
160 -> 162 ;
163 [label="gini = 0.0\nsamples = 1\nvalue = [0, 0, 1, 0, 0]", fillcolor="#39e5c5"] ;
159 -> 163 ;
164 [label="공익사업유형 <= 5.0\ngini = 0.48\nsamples = 3\nvalue = [2, 0, 3, 0, 0]", fillcolor="#bdf6ec"] ;
158 -> 164 ;
165 [label="잉여기부비용 <= 0.958\ngini = 0.444\nsamples = 2\nvalue = [2, 0, 1, 0, 0]", fillcolor="#f2c09c"] ;
164 -> 165 ;
166 [label="gini = 0.0\nsamples = 1\nvalue = [0, 0, 1, 0, 0]", fillcolor="#39e5c5"] ;
165 -> 166 ;
167 [label="gini = 0.0\nsamples = 1\nvalue = [2, 0, 0, 0, 0]", fillcolor="#e58139"] ;
165 -> 167 ;
168 [label="gini = 0.0\nsamples = 1\nvalue = [0, 0, 2, 0, 0]", fillcolor="#39e5c5"] ;
164 -> 168 ;
169 [label="개인기부비율 <= 0.074\ngini = 0.39\nsamples = 40\nvalue = [47, 0, 17, 0, 0]", fillcolor="#eeaf81"] ;
137 -> 169 ;
170 [label="gini = 0.0\nsamples = 10\nvalue = [19, 0, 0, 0, 0]", fillcolor="#e58139"] ;
169 -> 170 ;
171 [label="개인기부비율 <= 0.096\ngini = 0.47\nsamples = 30\nvalue = [28, 0, 17, 0, 0]", fillcolor="#f5ceb1"] ;
169 -> 171 ;
172 [label="gini = 0.0\nsamples = 2\nvalue = [0, 0, 6, 0, 0]", fillcolor="#39e5c5"] ;
171 -> 172 ;
173 [label="영리기부비율 <= 0.139\ngini = 0.405\nsamples = 28\nvalue = [28, 0, 11, 0, 0]", fillcolor="#efb287"] ;
171 -> 173 ;
174 [label="공익사업유형 <= 4.5\ngini = 0.245\nsamples = 4\nvalue = [1, 0, 6, 0, 0]", fillcolor="#5ae9cf"] ;
173 -> 174 ;
175 [label="gini = 0.0\nsamples = 3\nvalue = [0, 0, 6, 0, 0]", fillcolor="#39e5c5"] ;
174 -> 175 ;
176 [label="gini = 0.0\nsamples = 1\nvalue = [1, 0, 0, 0, 0]", fillcolor="#e58139"] ;
174 -> 176 ;
177 [label="외부회계감사 여부 <= 0.5\ngini = 0.264\nsamples = 24\nvalue = [27, 0, 5, 0, 0]", fillcolor="#ea985e"] ;
173 -> 177 ;
178 [label="물질지분비율 <= 0.393\ngini = 0.401\nsamples = 15\nvalue = [13, 0, 5, 0, 0]", fillcolor="#efb185"] ;
177 -> 178 ;
179 [label="자원봉사자 연인원 수 <= -5.207\ngini = 0.231\nsamples = 13\nvalue = [13, 0, 2, 0, 0]", fillcolor="#e99457"] ;
178 -> 179 ;
180 [label="gini = 0.0\nsamples = 11\nvalue = [13, 0, 0, 0, 0]", fillcolor="#e58139"] ;
179 -> 180 ;
181 [label="gini = 0.0\nsamples = 2\nvalue = [0, 0, 2, 0, 0]", fillcolor="#39e5c5"] ;
179 -> 181 ;
182 [label="gini = 0.0\nsamples = 2\nvalue = [0, 0, 3, 0, 0]", fillcolor="#39e5c5"] ;
178 -> 182 ;
183 [label="gini = 0.0\nsamples = 9\nvalue = [14, 0, 0, 0, 0]", fillcolor="#e58139"] ;
177 -> 183 ;
184 [label="gini = 0.0\nsamples = 1\nvalue = [0, 0, 1, 0, 0]", fillcolor="#39e5c5"] ;
136 -> 184 ;
185 [label="잉여기부비용 <= 0.004\ngini = 0.216\nsamples = 779\nvalue = [1069, 0, 150, 0, 0]", fillcolor="#e99355"] ;
89 -> 185 ;
186 [label="영리기부비율 <= 0.001\ngini = 0.115\nsamples = 152\nvalue = [215, 0, 14, 0, 0]", fillcolor="#e78946"] ;
185 -> 186 ;
187 [label="자원봉사자 연인원 수 <= -6.908\ngini = 0.104\nsamples = 145\nvalue = [206, 0, 12, 0, 0]", fillcolor="#e78845"] ;
186 -> 187 ;
188 [label="gini = 0.0\nsamples = 138\nvalue = [206, 0, 0, 0, 0]", fillcolor="#e58139"] ;
187 -> 188 ;
189 [label="gini = 0.0\nsamples = 7\nvalue = [0, 0, 12, 0, 0]", fillcolor="#39e5c5"] ;
187 -> 189 ;
190 [label="기타자산비율 <= 0.069\ngini = 0.298\nsamples = 7\nvalue = [9, 0, 2, 0, 0]", fillcolor="#eb9d65"] ;
186 -> 190 ;
191 [label="gini = 0.0\nsamples = 2\nvalue = [6, 0, 0, 0, 0]", fillcolor="#e58139"] ;
190 -> 191 ;
192 [label="공익사업유형 <= 3.5\ngini = 0.48\nsamples = 5\nvalue = [3, 0, 2, 0, 0]", fillcolor="#f6d5bd"] ;
190 -> 192 ;
193 [label="gini = 0.0\nsamples = 2\nvalue = [0, 0, 2, 0, 0]", fillcolor="#39e5c5"] ;
192 -> 193 ;
194 [label="gini = 0.0\nsamples = 3\nvalue = [3, 0, 0, 0, 0]", fillcolor="#e58139"] ;
192 -> 194 ;
195 [label="외부회계감사 여부 <= 0.5\ngini = 0.237\nsamples = 627\nvalue = [854, 0, 136, 0, 0]", fillcolor="#e99559"] ;
185 -> 195 ;
196 [label="공익사업유형 <= 2.5\ngini = 0.324\nsamples = 268\nvalue = [317, 0, 81, 0, 0]", fillcolor="#eca16c"] ;
195 -> 196 ;
197 [label="영리기부비율 <= 0.014\ngini = 0.456\nsamples = 65\nvalue = [59, 0, 32, 0, 0]", fillcolor="#f3c5a4"] ;
196 -> 197 ;
198 [label="자원봉사자 연인원 수 <= -6.908\ngini = 0.327\nsamples = 52\nvalue = [58, 0, 15, 0, 0]", fillcolor="#eca26c"] ;
197 -> 198 ;
199 [label="gini = 0.0\nsamples = 40\nvalue = [58, 0, 0, 0, 0]", fillcolor="#e58139"] ;
198 -> 199 ;
200 [label="gini = 0.0\nsamples = 12\nvalue = [0, 0, 15, 0, 0]", fillcolor="#39e5c5"] ;
198 -> 200 ;
201 [label="물질지분비율 <= 0.939\ngini = 0.105\nsamples = 13\nvalue = [1, 0, 17, 0, 0]", fillcolor="#45e7c8"] ;
197 -> 201 ;
202 [label="gini = 0.0\nsamples = 12\nvalue = [0, 0, 17, 0, 0]", fillcolor="#39e5c5"] ;
201 -> 202 ;
203 [label="gini = 0.0\nsamples = 1\nvalue = [1, 0, 0, 0, 0]", fillcolor="#e58139"] ;
201 -> 203 ;
204 [label="자원봉사자 연인원 수 <= -6.908\ngini = 0.268\nsamples = 203\nvalue = [258, 0, 49, 0, 0]", fillcolor="#ea995f"] ;
196 -> 204 ;
205 [label="gini = 0.0\nsamples = 173\nvalue = [258, 0, 0, 0, 0]", fillcolor="#e58139"] ;
204 -> 205 ;
206 [label="gini = 0.0\nsamples = 30\nvalue = [0, 0, 49, 0, 0]", fillcolor="#39e5c5"] ;
204 -> 206 ;
207 [label="잉여기부비용 <= 0.009\ngini = 0.169\nsamples = 359\nvalue = [537, 0, 55, 0, 0]", fillcolor="#e88e4d"] ;
195 -> 207 ;
208 [label="잉여기부비용 <= 0.007\ngini = 0.444\nsamples = 3\nvalue = [2, 0, 4, 0, 0]", fillcolor="#9cf2e2"] ;
207 -> 208 ;
209 [label="gini = 0.0\nsamples = 2\nvalue = [2, 0, 0, 0, 0]", fillcolor="#e58139"] ;
208 -> 209 ;
210 [label="gini = 0.0\nsamples = 1\nvalue = [0, 0, 4, 0, 0]", fillcolor="#39e5c5"] ;
208 -> 210 ;
211 [label="개인기부비율 <= 0.0\ngini = 0.159\nsamples = 356\nvalue = [535, 0, 51, 0, 0]", fillcolor="#e78d4c"] ;
207 -> 211 ;
212 [label="gini = 0.0\nsamples = 1\nvalue = [0, 0, 1, 0, 0]", fillcolor="#39e5c5"] ;
211 -> 212 ;
213 [label="기타자산비율 <= 0.997\ngini = 0.156\nsamples = 355\nvalue = [535, 0, 50, 0, 0]", fillcolor="#e78d4c"] ;
211 -> 213 ;
214 [label="물질지분비율 <= 0.969\ngini = 0.145\nsamples = 345\nvalue = [526, 0, 45, 0, 0]", fillcolor="#e78c4a"] ;
213 -> 214 ;
215 [label="개인기부비율 <= 0.991\ngini = 0.14\nsamples = 342\nvalue = [525, 0, 43, 0, 0]", fillcolor="#e78b49"] ;
214 -> 215 ;
216 [label="설립유형 <= 0.15\ngini = 0.25\nsamples = 67\nvalue = [93, 0, 16, 0, 0]", fillcolor="#e9975b"] ;
215 -> 216 ;
217 [label="영리기부비율 <= 0.006\ngini = 0.497\nsamples = 8\nvalue = [6, 0, 7, 0, 0]", fillcolor="#e3fbf7"] ;
216 -> 217 ;
218 [label="개인기부비율 <= 0.97\ngini = 0.48\nsamples = 6\nvalue = [6, 0, 4, 0, 0]", fillcolor="#f6d5bd"] ;
217 -> 218 ;
219 [label="gini = 0.0\nsamples = 2\nvalue = [4, 0, 0, 0, 0]", fillcolor="#e58139"] ;
218 -> 219 ;
220 [label="기부금사용비율 <= -0.016\ngini = 0.444\nsamples = 4\nvalue = [2, 0, 4, 0, 0]", fillcolor="#9cf2e2"] ;
218 -> 220 ;
221 [label="gini = 0.0\nsamples = 1\nvalue = [0, 0, 3, 0, 0]", fillcolor="#39e5c5"] ;
220 -> 221 ;
222 [label="기타자산비율 <= 0.396\ngini = 0.444\nsamples = 3\nvalue = [2, 0, 1, 0, 0]", fillcolor="#f2c09c"] ;
220 -> 222 ;
223 [label="gini = 0.0\nsamples = 1\nvalue = [1, 0, 0, 0, 0]", fillcolor="#e58139"] ;
222 -> 223 ;
224 [label="개인기부비율 <= 0.981\ngini = 0.5\nsamples = 2\nvalue = [1, 0, 1, 0, 0]", fillcolor="#ffffff"] ;
222 -> 224 ;
225 [label="gini = 0.0\nsamples = 1\nvalue = [0, 0, 1, 0, 0]", fillcolor="#39e5c5"] ;
224 -> 225 ;
226 [label="gini = 0.0\nsamples = 1\nvalue = [1, 0, 0, 0, 0]", fillcolor="#e58139"] ;
224 -> 226 ;
227 [label="gini = 0.0\nsamples = 2\nvalue = [0, 0, 3, 0, 0]", fillcolor="#39e5c5"] ;
217 -> 227 ;
228 [label="자원봉사자 연인원 수 <= -4.993\ngini = 0.17\nsamples = 59\nvalue = [87, 0, 9, 0, 0]", fillcolor="#e88e4d"] ;
216 -> 228 ;
229 [label="gini = 0.0\nsamples = 54\nvalue = [87, 0, 0, 0, 0]", fillcolor="#e58139"] ;
228 -> 229 ;
230 [label="gini = 0.0\nsamples = 5\nvalue = [0, 0, 9, 0, 0]", fillcolor="#39e5c5"] ;
228 -> 230 ;
231 [label="공익사업유형 <= 3.5\ngini = 0.111\nsamples = 275\nvalue = [432, 0, 27, 0, 0]", fillcolor="#e78945"] ;
215 -> 231 ;
232 [label="자원봉사자 연인원 수 <= -5.809\ngini = 0.275\nsamples = 89\nvalue = [117, 0, 23, 0, 0]", fillcolor="#ea9a60"] ;
231 -> 232 ;
233 [label="gini = 0.0\nsamples = 74\nvalue = [117, 0, 0, 0, 0]", fillcolor="#e58139"] ;
232 -> 233 ;
234 [label="gini = 0.0\nsamples = 15\nvalue = [0, 0, 23, 0, 0]", fillcolor="#39e5c5"] ;
232 -> 234 ;
235 [label="잉여기부비용 <= 0.177\ngini = 0.025\nsamples = 186\nvalue = [315, 0, 4, 0, 0]", fillcolor="#e5833c"] ;
231 -> 235 ;
236 [label="잉여기부비용 <= 0.172\ngini = 0.185\nsamples = 19\nvalue = [26, 0, 3, 0, 0]", fillcolor="#e89050"] ;
235 -> 236 ;
237 [label="자원봉사자 연인원 수 <= -5.756\ngini = 0.133\nsamples = 18\nvalue = [26, 0, 2, 0, 0]", fillcolor="#e78b48"] ;
236 -> 237 ;
238 [label="gini = 0.0\nsamples = 16\nvalue = [26, 0, 0, 0, 0]", fillcolor="#e58139"] ;
237 -> 238 ;
239 [label="gini = 0.0\nsamples = 2\nvalue = [0, 0, 2, 0, 0]", fillcolor="#39e5c5"] ;
237 -> 239 ;
240 [label="gini = 0.0\nsamples = 1\nvalue = [0, 0, 1, 0, 0]", fillcolor="#39e5c5"] ;
236 -> 240 ;
241 [label="잉여기부비용 <= 0.576\ngini = 0.007\nsamples = 167\nvalue = [289, 0, 1, 0, 0]", fillcolor="#e5813a"] ;
235 -> 241 ;
242 [label="자원봉사자 연인원 수 <= -5.756\ngini = 0.067\nsamples = 15\nvalue = [28, 0, 1, 0, 0]", fillcolor="#e68640"] ;
241 -> 242 ;
243 [label="gini = 0.0\nsamples = 14\nvalue = [28, 0, 0, 0, 0]", fillcolor="#e58139"] ;
242 -> 243 ;
244 [label="gini = 0.0\nsamples = 1\nvalue = [0, 0, 1, 0, 0]", fillcolor="#39e5c5"] ;
242 -> 244 ;
245 [label="gini = 0.0\nsamples = 152\nvalue = [261, 0, 0, 0, 0]", fillcolor="#e58139"] ;
241 -> 245 ;
246 [label="물질지분비율 <= 0.988\ngini = 0.444\nsamples = 3\nvalue = [1, 0, 2, 0, 0]", fillcolor="#9cf2e2"] ;
214 -> 246 ;
247 [label="gini = 0.0\nsamples = 2\nvalue = [0, 0, 2, 0, 0]", fillcolor="#39e5c5"] ;
246 -> 247 ;
248 [label="gini = 0.0\nsamples = 1\nvalue = [1, 0, 0, 0, 0]", fillcolor="#e58139"] ;
246 -> 248 ;
249 [label="기부금사용비율 <= 0.001\ngini = 0.459\nsamples = 10\nvalue = [9, 0, 5, 0, 0]", fillcolor="#f3c7a7"] ;
213 -> 249 ;
250 [label="gini = 0.0\nsamples = 6\nvalue = [8, 0, 0, 0, 0]", fillcolor="#e58139"] ;
249 -> 250 ;
251 [label="자원봉사자 연인원 수 <= -5.207\ngini = 0.278\nsamples = 4\nvalue = [1, 0, 5, 0, 0]", fillcolor="#61ead1"] ;
249 -> 251 ;
252 [label="gini = 0.0\nsamples = 1\nvalue = [1, 0, 0, 0, 0]", fillcolor="#e58139"] ;
251 -> 252 ;
253 [label="gini = 0.0\nsamples = 3\nvalue = [0, 0, 5, 0, 0]", fillcolor="#39e5c5"] ;
251 -> 253 ;
254 [label="자원봉사자 연인원 수 <= -6.908\ngini = 0.468\nsamples = 510\nvalue = [518, 0, 309, 0, 0]", fillcolor="#f5ccaf"] ;
88 -> 254 ;
255 [label="gini = 0.0\nsamples = 313\nvalue = [518, 0, 0, 0, 0]", fillcolor="#e58139"] ;
254 -> 255 ;
256 [label="gini = 0.0\nsamples = 197\nvalue = [0, 0, 309, 0, 0]", fillcolor="#39e5c5"] ;
254 -> 256 ;
}